svm_type c_svc
kernel_type rbf
gamma 0.1
nr_class 2
total_sv 15
rho 0.333333
label 1 0
nr_sv 6 9
SV
1 1:0 2:473439.27 3:271984 4:199782.46 5:189123.86 6:322286.59 7:290091.99 8:425506.96 9:879516.14 10:550676.68 
1 1:19552.954 2:318702.97 3:448395.51 4:355171.37 5:95463.567 6:519433.11 7:483012.69 8:276211.37 9:1202122.5 10:805815.86 
1 1:17531.661 2:327141.14 3:438507.13 4:346376.81 5:100106.74 6:508786.02 7:472747.61 8:284070.72 9:1185896.6 10:792541.09 
1 1:91.017316 2:491790.57 3:266118.79 4:195607.29 5:208560.52 6:317312.91 7:284587.29 8:450124.71 9:887220.16 10:549497.93 
1 1:15506.867 2:336218.07 3:428132.18 4:337162.84 5:105155.64 6:497605.77 7:461972.84 8:292533.28 9:1168794.9 10:778571.81 
1 1:1690.9368 2:531718.4 3:230784.02 4:164713.66 5:226580.51 6:277288.5 7:247487.23 8:480845.1 9:804078.45 10:491337.81 
-0.6669921875 1:296318.81 2:0 3:889700.14 4:792568.64 5:36720.086 6:1085675.5 7:933450.09 8:430.0979 9:1825289.1 10:1308879.4 
-0.6669921875 1:280679.07 2:1523154 3:0 4:5425.9215 5:957648.57 6:2610.5631 7:643.52174 8:1428459 9:182149.77 10:52006.372 
-0.6669921875 1:199782.46 2:1288314.8 3:5557.7838 4:0 5:777666.55 6:14576.359 7:8396.3459 8:1208414.9 9:240938.54 10:87087.327 
-0.6669921875 1:216090.19 2:77816.501 3:1060707.4 4:899909.02 5:0 6:1161828.3 7:1103795.3 8:59280.061 9:2169472.1 10:1611953.2 
-0.6669921875 1:364648.32 2:1728918.2 3:3155.503 4:17530.577 5:1121291.1 6:0 7:732.53063 8:1669098.6 9:150787.16 10:32613.661 
-0.6669921875 1:308201.81 2:1586413.2 3:643.52174 4:9806.6607 5:1007941.6 6:661.82397 7:0 8:1489740.6 9:161139.9 10:41079.72 
-0.666015625 1:456187.98 2:1789.562 3:1494247 4:1305246.2 5:48370.123 6:1619031.9 7:1541612.5 8:0 9:2736037.4 10:2108816.9 
-0.666015625 1:905283.64 2:2700111 3:181524.24 4:249648.64 5:1956104.1 6:143351.82 7:166836.64 8:2601243.2 9:0 10:40257.36 
-0.666015625 1:550676.68 2:2045315.2 3:48644.541 4:87087.327 5:1385234 6:30405.952 7:41401.686 8:1944309.2 9:38317.784 10:0 
